<?xml version="1.0"?>
<opencv_storage>
    <cascade>
        <stageType>BOOST</stageType>
        <featureType>HAAR</featureType>
        <height>24</height>
        <width>24</width>
        <stageParams>
            <boostType>GAB</boostType>
            <minHitRate>9.9500000476837158e-01</minHitRate>
            <maxFalseAlarm>5.0000000000000000e-01</maxFalseAlarm>
            <weightTrimRate>9.4999999999999996e-01</weightTrimRate>
            <maxDepth>1</maxDepth>
            <maxWeakCount>100</maxWeakCount>
        </stageParams>
        <featureParams>
            <maxCatCount>0</maxCatCount>
            <featSize>1</featSize>
            <mode>BASIC</mode>
        </featureParams>
        <stageNum>10</stageNum>
        <stages>
            <!-- stage 0 -->
            <_>
                <maxWeakCount>4</maxWeakCount>
                <stageThreshold>-1.1667228937149048e+00</stageThreshold>
                <weakClassifiers>
                    <_>
                        <internalNodes>
                            0 -1 39 -2.6329595595598221e-02
                        </internalNodes>
                        <leafValues>
                            6.5517240762710571e-01 -6.7664670944213867e-01
                        </leafValues>
                    </_>
                    <_>
                        <internalNodes>
                            0 -1 61 -1.7534978687763214e-02
                        </internalNodes>
                        <leafValues>
                            5.3698444366455078e-01 -6.2955754995346069e-01
                        </leafValues>
                    </_>
                    <_>
                        <internalNodes>
                            0 -1 3 6.9980978965759277e-02
                        </internalNodes>
                        <leafValues>
                            -4.7606560587882996e-01 6.9466370344161987e-01
                        </leafValues>
                    </_>
                    <_>
                        <internalNodes>
                            0 -1 41 6.8090460263192654e-04
                        </internalNodes>
                        <leafValues>
                            -4.5921245217323303e-01 6.1554694175720215e-01
                        </leafValues>
                    </_>
                </weakClassifiers>
            </_>
            <!-- stage 1 -->
            <_>
                <maxWeakCount>3</maxWeakCount>
                <stageThreshold>-1.2788048982620239e+00</stageThreshold>
                <weakClassifiers>
                    <_>
                        <internalNodes>
                            0 -1 20 -8.8867964223027229e-03
                        </internalNodes>
                        <leafValues>
                            -7.7777779102325439e-01 3.3333334326744080e-01
                        </leafValues>
                    </_>
                    <_>
                        <internalNodes>
                            0 -1 35 -2.0680408924818039e-02
                        </internalNodes>
                        <leafValues>
                            2.8454825282096863e-01 -7.1354550123214722e-01
                        </leafValues>
                    </_>
                    <_>
                        <internalNodes>
                            0 -1 75 -8.3326138556003571e-02
                        </internalNodes>
                        <leafValues>
                            -1. 2.1251830458641052e-01
                        </leafValues>
                    </_>
                </weakClassifiers>
            </_>
            <!-- stage 2 -->
            <_>
                <maxWeakCount>5</maxWeakCount>
                <stageThreshold>-8.9702796936035156e-01</stageThreshold>
                <weakClassifiers>
                    <_>
                        <internalNodes>
                            0 -1 40 9.4719007611274719e-03
                        </internalNodes>
                        <leafValues>
                            -6.8181818723678589e-01 4.2253521084785461e-01
                        </leafValues>
                    </_>
                    <_>
                        <internalNodes>
                            0 -1 57 -1.8465675413608551e-02
                        </internalNodes>
                        <leafValues>
                            4.4194141030311584e-01 -5.5909371376037598e-01
                        </leafValues>
                    </_>
                    <_>
                        <internalNodes>
                            0 -1 8 1.5481428243219852e-02
                        </internalNodes>
                        <leafValues>
                            -5.9938043355941772e-01 3.9502403140068054e-01
                        </leafValues>
                    </_>
                    <_>
                        <internalNodes>
                            0 -1 18 2.0331155508756638e-02
                        </internalNodes>
                        <leafValues>
                            -4.4950914382934570e-01 4.7035273909568787e-01
                        </leafValues>
                    </_>
                    <_>
                        <internalNodes>
                            0 -1 70 -1.1958719231188297e-02
                        </internalNodes>
                        <leafValues>
                            5.0664126873016357e-01 -5.2812349796295166e-01
                        </leafValues>
                    </_>
                </weakClassifiers>
            </_>
            <!-- stage 3 -->
            <_>
                <maxWeakCount>5</maxWeakCount>
                <stageThreshold>-1.0387653112411499e+00</stageThreshold>
                <weakClassifiers>
                    <_>
                        <internalNodes>
                            0 -1 39 -2.7173779904842377e-02
                        </internalNodes>
                        <leafValues>
                            3.8686132431030273e-01 -6.4856231212615967e-01
                        </leafValues>
                    </_>
                    <_>
                        <internalNodes>
                            0 -1 5 1.0071974247694016e-02
                        </internalNodes>
                        <leafValues>
                            -4.1804489493370056e-01 6.1208891868591309e-01
                        </leafValues>
                    </_>
                    <_>
                        <internalNodes>
                            0 -1 12 -4.4082524254918098e-03
                        </internalNodes>
                        <leafValues>
                            5.4015624523162842e-01 -3.3187007904052734e-01
                        </leafValues>
                    </_>
                    <_>
                        <internalNodes>
                            0 -1 27 7.1322172880172729e-03
                        </internalNodes>
                        <leafValues>
                            -2.8716844320297241e-01 6.4049899578094482e-01
                        </leafValues>
                    </_>
                    <_>
                        <internalNodes>
                            0 -1 22 1.0312574449926615e-03
                        </internalNodes>
                        <leafValues>
                            -2.2514593601226807e-01 6.5169000625610352e-01
                        </leafValues>
                    </_>
                </weakClassifiers>
            </_>
            <!-- stage 4 -->
            <_>
                <maxWeakCount>8</maxWeakCount>
                <stageThreshold>-1.1235988140106201e+00</stageThreshold>
                <weakClassifiers>
                    <_>
                        <internalNodes>
                            0 -1 2 1.1015230417251587e-01
                        </internalNodes>
                        <leafValues>
                            -5.5056178569793701e-01 4.8936170339584351e-01
                        </leafValues>
                    </_>
                    <_>
                        <internalNodes>
                            0 -1 60 -7.2900325059890747e-02
                        </internalNodes>
                        <leafValues>
                            4.1102242469787598e-01 -4.1432186961174011e-01
                        </leafValues>
                    </_>
                    <_>
                        <internalNodes>
                            0 -1 29 -7.8967243432998657e-02
                        </internalNodes>
                        <leafValues>
                            1.9806164503097534e-01 -7.2905433177947998e-01
                        </leafValues>
                    </_>
                    <_>
                        <internalNodes>
                            0 -1 9 9.2404838651418686e-03
                        </internalNodes>
                        <leafValues>
                            -4.1470757126808167e-01 3.2319772243499756e-01
                        </leafValues>
                    </_>
                    <_>
                        <internalNodes>
                            0 -1 15 4.7519877552986145e-03
                        </internalNodes>
                        <leafValues>
                            -4.8872190713882446e-01 2.1424897015094757e-01
                        </leafValues>
                    </_>
                    <_>
                        <internalNodes>
                            0 -1 19 -1.3221743283793330e-03
                        </internalNodes>
                        <leafValues>
                            3.1375780701637268e-01 -4.3591108918190002e-01
                        </leafValues>
                    </_>
                    <_>
                        <internalNodes>
                            0 -1 54 8.4354225546121597e-03
                        </internalNodes>
                        <leafValues>
                            1.2754468619823456e-01 -7.3999446630477905e-01
                        </leafValues>
                    </_>
                    <_>
                        <internalNodes>
                            0 -1 38 7.1045737713575363e-03
                        </internalNodes>
                        <leafValues>
                            2.0712190866470337e-01 -5.2009606361389160e-01
                        </leafValues>
                    </_>
                </weakClassifiers>
            </_>
            <!-- stage 5 -->
            <_>
                <maxWeakCount>9</maxWeakCount>
                <stageThreshold>-1.1505419015884399e+00</stageThreshold>
                <weakClassifiers>
                    <_>
                        <internalNodes>
                            0 -1 74 -1.2360245920717716e-02
                        </internalNodes>
                        <leafValues>
                            2.5252524018287659e-01 -4.9857550859451294e-01
                        </leafValues>
                    </_>
                    <_>
                        <internalNodes>
                            0 -1 21 5.6465156376361847e-03
                        </internalNodes>
                        <leafValues>
                            -3.4616026282310486e-01 3.7570586800575256e-01
                        </leafValues>
                    </_>
                    <_>
                        <internalNodes>
                            0 -1 44 -2.5972519069910049e-02
                        </internalNodes>
                        <leafValues>
                            1.5826795995235443e-01 -8.1620323657989502e-01
                        </leafValues>
                    </_>
                    <_>
                        <internalNodes>
                            0 -1 53 -9.3526523560285568e-03
                        </internalNodes>
                        <leafValues>
                            -8.0375629663467407e-01 1.3234470784664154e-01
                        </leafValues>
                    </_>
                    <_>
                        <internalNodes>
                            0 -1 68 -8.3896331489086151e-03
                        </internalNodes>
                        <leafValues>
                            -3.8069429993629456e-01 2.8763312101364136e-01
                        </leafValues>
                    </_>
                    <_>
                        <internalNodes>
                            0 -1 63 -2.9722898034378886e-04
                        </internalNodes>
                        <leafValues>
                            4.3004032969474792e-01 -2.6442593336105347e-01
                        </leafValues>
                    </_>
                    <_>
                        <internalNodes>
                            0 -1 0 -9.1100502759218216e-03
                        </internalNodes>
                        <leafValues>
                            6.5246552228927612e-01 -1.4217063784599304e-01
                        </leafValues>
                    </_>
                    <_>
                        <internalNodes>
                            0 -1 1 7.4290123302489519e-04
                        </internalNodes>
                        <leafValues>
                            -4.3796572089195251e-01 2.5691220164299011e-01
                        </leafValues>
                    </_>
                    <_>
                        <internalNodes>
                            0 -1 72 -5.6479976046830416e-04
                        </internalNodes>
                        <leafValues>
                            6.8508076667785645e-01 -1.6579830646514893e-01
                        </leafValues>
                    </_>
                </weakClassifiers>
            </_>
            <!-- stage 6 -->
            <_>
                <maxWeakCount>12</maxWeakCount>
                <stageThreshold>-9.5814716815948486e-01</stageThreshold>
                <weakClassifiers>
                    <_>
                        <internalNodes>
                            0 -1 36 -2.2497791796922684e-02
                        </internalNodes>
                        <leafValues>
                            1.0000000149011612e-01 -5.2903223037719727e-01
                        </leafValues>
                    </_>
                    <_>
                        <internalNodes>
                            0 -1 24 1.2440511956810951e-02
                        </internalNodes>
                        <leafValues>
                            -3.0714386701583862e-01 3.2092830538749695e-01
                        </leafValues>
                    </_>
                    <_>
                        <internalNodes>
                            0 -1 56 -5.0787601619958878e-02
                        </internalNodes>
                        <leafValues>
                            2.3811361193656921e-01 -4.1875252127647400e-01
                        </leafValues>
                    </_>
                    <_>
                        <internalNodes>
                            0 -1 73 -5.0434889271855354e-04
                        </internalNodes>
                        <leafValues>
                            5.0857245922088623e-01 -2.0304331183433533e-01
                        </leafValues>
                    </_>
                    <_>
                        <internalNodes>
                            0 -1 49 1.0044185444712639e-02
                        </internalNodes>
                        <leafValues>
                            -3.7851208448410034e-01 2.8128379583358765e-01
                        </leafValues>
                    </_>
                    <_>
                        <internalNodes>
                            0 -1 23 -6.8892858689650893e-04
                        </internalNodes>
                        <leafValues>
                            3.7913832068443298e-01 -2.9584255814552307e-01
                        </leafValues>
                    </_>
                    <_>
                        <internalNodes>
                            0 -1 7 -3.4242859110236168e-03
                        </internalNodes>
                        <leafValues>
                            8.0515873432159424e-01 -1.5579652786254883e-01
                        </leafValues>
                    </_>
                    <_>
                        <internalNodes>
                            0 -1 10 1.8811568152159452e-03
                        </internalNodes>
                        <leafValues>
                            -2.3875758051872253e-01 5.8479255437850952e-01
                        </leafValues>
                    </_>
                    <_>
                        <internalNodes>
                            0 -1 77 3.4511263947933912e-04
                        </internalNodes>
                        <leafValues>
                            -2.0520819723606110e-01 5.9296584129333496e-01
                        </leafValues>
                    </_>
                    <_>
                        <internalNodes>
                            0 -1 65 -3.0751088634133339e-02
                        </internalNodes>
                        <leafValues>
                            -5.3402531147003174e-01 2.4071232974529266e-01
                        </leafValues>
                    </_>
                    <_>
                        <internalNodes>
                            0 -1 6 -1.0603264905512333e-02
                        </internalNodes>
                        <leafValues>
                            5.5352187156677246e-01 -2.2187381982803345e-01
                        </leafValues>
                    </_>
                    <_>
                        <internalNodes>
                            0 -1 66 1.7627292254474014e-04
                        </internalNodes>
                        <leafValues>
                            -2.0774571597576141e-01 5.8319479227066040e-01
                        </leafValues>
                    </_>
                </weakClassifiers>
            </_>
            <!-- stage 7 -->
            <_>
                <maxWeakCount>10</maxWeakCount>
                <stageThreshold>-9.6605455875396729e-01</stageThreshold>
                <weakClassifiers>
                    <_>
                        <internalNodes>
                            0 -1 67 -2.5710198096930981e-03
                        </internalNodes>
                        <leafValues>
                            1.9540229439735413e-01 -4.6005508303642273e-01
                        </leafValues>
                    </_>
                    <_>
                        <internalNodes>
                            0 -1 80 -8.4798755124211311e-03
                        </internalNodes>
                        <leafValues>
                            -3.2317233085632324e-01 2.9259485006332397e-01
                        </leafValues>
                    </_>
                    <_>
                        <internalNodes>
                            0 -1 30 -1.0226150043308735e-03
                        </internalNodes>
                        <leafValues>
                            4.1421961784362793e-01 -2.0422258973121643e-01
                        </leafValues>
                    </_>
                    <_>
                        <internalNodes>
                            0 -1 32 9.5516331493854523e-03
                        </internalNodes>
                        <leafValues>
                            -2.4970948696136475e-01 3.8915798068046570e-01
                        </leafValues>
                    </_>
                    <_>
                        <internalNodes>
                            0 -1 43 -1.5887949615716934e-02
                        </internalNodes>
                        <leafValues>
                            3.8198795914649963e-01 -2.1380284428596497e-01
                        </leafValues>
                    </_>
                    <_>
                        <internalNodes>
                            0 -1 50 -9.0303555130958557e-02
                        </internalNodes>
                        <leafValues>
                            9.7920715808868408e-02 -8.8079297542572021e-01
                        </leafValues>
                    </_>
                    <_>
                        <internalNodes>
                            0 -1 17 5.6290940847247839e-04
                        </internalNodes>
                        <leafValues>
                            -2.5065067410469055e-01 3.8162994384765625e-01
                        </leafValues>
                    </_>
                    <_>
                        <internalNodes>
                            0 -1 16 1.2608701363205910e-02
                        </internalNodes>
                        <leafValues>
                            -6.3173246383666992e-01 1.6258969902992249e-01
                        </leafValues>
                    </_>
                    <_>
                        <internalNodes>
                            0 -1 59 -7.5076392386108637e-04
                        </internalNodes>
                        <leafValues>
                            5.2168810367584229e-01 -1.9752416014671326e-01
                        </leafValues>
                    </_>
                    <_>
                        <internalNodes>
                            0 -1 78 6.8931607529520988e-04
                        </internalNodes>
                        <leafValues>
                            -1.9913952052593231e-01 3.8858538866043091e-01
                        </leafValues>
                    </_>
                </weakClassifiers>
            </_>
            <!-- stage 8 -->
            <_>
                <maxWeakCount>12</maxWeakCount>
                <stageThreshold>-1.0514802932739258e+00</stageThreshold>
                <weakClassifiers>
                    <_>
                        <internalNodes>
                            0 -1 14 7.0659872144460678e-03
                        </internalNodes>
                        <leafValues>
                            -4.8087432980537415e-01 3.0952382087707520e-01
                        </leafValues>
                    </_>
                    <_>
                        <internalNodes>
                            0 -1 34 7.6866582967340946e-03
                        </internalNodes>
                        <leafValues>
                            8.5696578025817871e-02 -6.7477524280548096e-01
                        </leafValues>
                    </_>
                    <_>
                        <internalNodes>
                            0 -1 52 1.3454882428050041e-03
                        </internalNodes>
                        <leafValues>
                            -1.7924939095973969e-01 4.2471867799758911e-01
                        </leafValues>
                    </_>
                    <_>
                        <internalNodes>
                            0 -1 42 3.5890370607376099e-02
                        </internalNodes>
                        <leafValues>
                            3.4228123724460602e-02 -8.5631376504898071e-01
                        </leafValues>
                    </_>
                    <_>
                        <internalNodes>
                            0 -1 25 -9.6624935395084321e-05
                        </internalNodes>
                        <leafValues>
                            3.8352704048156738e-01 -2.0325383543968201e-01
                        </leafValues>
                    </_>
                    <_>
                        <internalNodes>
                            0 -1 11 -5.3062133491039276e-02
                        </internalNodes>
                        <leafValues>
                            -4.4793540239334106e-01 2.1511541306972504e-01
                        </leafValues>
                    </_>
                    <_>
                        <internalNodes>
                            0 -1 55 5.9117008931934834e-03
                        </internalNodes>
                        <leafValues>
                            -2.1979342401027679e-01 5.1861196756362915e-01
                        </leafValues>
                    </_>
                    <_>
                        <internalNodes>
                            0 -1 46 -6.9393231533467770e-03
                        </internalNodes>
                        <leafValues>
                            3.2532516121864319e-01 -2.7807441353797913e-01
                        </leafValues>
                    </_>
                    <_>
                        <internalNodes>
                            0 -1 4 -1.0289335250854492e-01
                        </internalNodes>
                        <leafValues>
                            5.8323943614959717e-01 -1.7581044137477875e-01
                        </leafValues>
                    </_>
                    <_>
                        <internalNodes>
                            0 -1 33 7.6962322928011417e-03
                        </internalNodes>
                        <leafValues>
                            -1.6419252753257751e-01 4.4494181871414185e-01
                        </leafValues>
                    </_>
                    <_>
                        <internalNodes>
                            0 -1 71 -5.0048111006617546e-03
                        </internalNodes>
                        <leafValues>
                            3.8687729835510254e-01 -2.1281588077545166e-01
                        </leafValues>
                    </_>
                    <_>
                        <internalNodes>
                            0 -1 64 4.3271906906738877e-04
                        </internalNodes>
                        <leafValues>
                            -2.3150604963302612e-01 3.8709390163421631e-01
                        </leafValues>
                    </_>
                </weakClassifiers>
            </_>
            <!-- stage 9 -->
            <_>
                <maxWeakCount>14</maxWeakCount>
                <stageThreshold>-8.6530476808547974e-01</stageThreshold>
                <weakClassifiers>
                    <_>
                        <internalNodes>
                            0 -1 48 -1.3219997286796570e-02
                        </internalNodes>
                        <leafValues>
                            8.0000001192092896e-01 -4.1428571939468384e-01
                        </leafValues>
                    </_>
                    <_>
                        <internalNodes>
                            0 -1 45 1.0266784578561783e-02
                        </internalNodes>
                        <leafValues>
                            6.8943597376346588e-02 -7.2470790147781372e-01
                        </leafValues>
                    </_>
                    <_>
                        <internalNodes>
                            0 -1 37 -1.8971053883433342e-02
                        </internalNodes>
                        <leafValues>
                            -4.6940112113952637e-01 1.7313085496425629e-01
                        </leafValues>
                    </_>
                    <_>
                        <internalNodes>
                            0 -1 79 3.0054265516810119e-04
                        </internalNodes>
                        <leafValues>
                            -1.9183364510536194e-01 4.5685788989067078e-01
                        </leafValues>
                    </_>
                    <_>
                        <internalNodes>
                            0 -1 51 -2.4579802993685007e-04
                        </internalNodes>
                        <leafValues>
                            3.9152386784553528e-01 -1.8402555584907532e-01
                        </leafValues>
                    </_>
                    <_>
                        <internalNodes>
                            0 -1 58 5.9302719309926033e-03
                        </internalNodes>
                        <leafValues>
                            -1.5979465842247009e-01 6.8659549951553345e-01
                        </leafValues>
                    </_>
                    <_>
                        <internalNodes>
                            0 -1 28 -1.8731364980340004e-02
                        </internalNodes>
                        <leafValues>
                            -1.1656486988067627e-01 5.7088851928710938e-01
                        </leafValues>
                    </_>
                    <_>
                        <internalNodes>
                            0 -1 26 -1.6354497347492725e-04
                        </internalNodes>
                        <leafValues>
                            4.4066035747528076e-01 -1.6865532100200653e-01
                        </leafValues>
                    </_>
                    <_>
                        <internalNodes>
                            0 -1 69 -2.9146519955247641e-04
                        </internalNodes>
                        <leafValues>
                            4.1908219456672668e-01 -1.9264322519302368e-01
                        </leafValues>
                    </_>
                    <_>
                        <internalNodes>
                            0 -1 31 -1.0425258660688996e-03
                        </internalNodes>
                        <leafValues>
                            -3.4734869003295898e-01 2.4986894428730011e-01
                        </leafValues>
                    </_>
                    <_>
                        <internalNodes>
                            0 -1 47 2.0566913299262524e-03
                        </internalNodes>
                        <leafValues>
                            1.3623745739459991e-01 -6.4216846227645874e-01
                        </leafValues>
                    </_>
                    <_>
                        <internalNodes>
                            0 -1 13 1.0667036287486553e-02
                        </internalNodes>
                        <leafValues>
                            -1.6157738864421844e-01 5.4818814992904663e-01
                        </leafValues>
                    </_>
                    <_>
                        <internalNodes>
                            0 -1 76 4.8688601236790419e-04
                        </internalNodes>
                        <leafValues>
                            -2.1240876615047455e-01 3.8898617029190063e-01
                        </leafValues>
                    </_>
                    <_>
                        <internalNodes>
                            0 -1 62 -4.2640911415219307e-03
                        </internalNodes>
                        <leafValues>
                            -1.8333411216735840e-01 4.9049261212348938e-01
                        </leafValues>
                    </_>
                </weakClassifiers>
            </_>
        </stages>
        <features>
            <_>
                <rects>
                    <_>
                        0 3 2 20 -1.
                    </_>
                    <_>
                        0 3 1 10 2.
                    </_>
                    <_>
                        1 13 1 10 2.
                    </_>
                </rects>
                <tilted>0</tilted>
            </_>
            <_>
                <rects>
                    <_>
                        0 3 8 4 -1.
                    </_>
                    <_>
                        4 3 4 4 2.
                    </_>
                </rects>
                <tilted>0</tilted>
            </_>
            <_>
                <rects>
                    <_>
                        0 3 8 14 -1.
                    </_>
                    <_>
                        4 3 4 14 2.
                    </_>
                </rects>
                <tilted>0</tilted>
            </_>
            <_>
                <rects>
                    <_>
                        0 6 8 15 -1.
                    </_>
                    <_>
                        4 6 4 15 2.
                    </_>
                </rects>
                <tilted>0</tilted>
            </_>
            <_>
                <rects>
                    <_>
                        0 6 22 14 -1.
                    </_>
                    <_>
                        0 6 11 7 2.
                    </_>
                    <_>
                        11 13 11 7 2.
                    </_>
                </rects>
                <tilted>0</tilted>
            </_>
            <_>
                <rects>
                    <_>
                        0 12 6 2 -1.
                    </_>
                    <_>
                        3 12 3 2 2.
                    </_>
                </rects>
                <tilted>0</tilted>
            </_>
            <_>
                <rects>
                    <_>
                        0 14 4 10 -1.
                    </_>
                    <_>
                        0 14 2 5 2.
                    </_>
                    <_>
                        2 19 2 5 2.
                    </_>
                </rects>
                <tilted>0</tilted>
            </_>
            <_>
                <rects>
                    <_>
                        0 17 4 2 -1.
                    </_>
                    <_>
                        2 17 2 2 2.
                    </_>
                </rects>
                <tilted>0</tilted>
            </_>
            <_>
                <rects>
                    <_>
                        0 17 12 5 -1.
                    </_>
                    <_>
                        6 17 6 5 2.
                    </_>
                </rects>
                <tilted>0</tilted>
            </_>
            <_>
                <rects>
                    <_>
                        0 17 14 2 -1.
                    </_>
                    <_>
                        7 17 7 2 2.
                    </_>
                </rects>
                <tilted>0</tilted>
            </_>
            <_>
                <rects>
                    <_>
                        0 19 4 1 -1.
                    </_>
                    <_>
                        2 19 2 1 2.
                    </_>
                </rects>
                <tilted>0</tilted>
            </_>
            <_>
                <rects>
                    <_>
                        0 21 11 3 -1.
                    </_>
                    <_>
                        0 22 11 1 2.
                    </_>
                </rects>
                <tilted>0</tilted>
            </_>
            <_>
                <rects>
                    <_>
                        0 22 15 2 -1.
                    </_>
                    <_>
                        0 23 15 1 2.
                    </_>
                </rects>
                <tilted>0</tilted>
            </_>
            <_>
                <rects>
                    <_>
                        1 0 4 6 -1.
                    </_>
                    <_>
                        1 0 2 3 2.
                    </_>
                    <_>
                        3 3 2 3 2.
                    </_>
                </rects>
                <tilted>0</tilted>
            </_>
            <_>
                <rects>
                    <_>
                        1 1 18 2 -1.
                    </_>
                    <_>
                        1 1 9 1 2.
                    </_>
                    <_>
                        10 2 9 1 2.
                    </_>
                </rects>
                <tilted>0</tilted>
            </_>
            <_>
                <rects>
                    <_>
                        1 2 9 6 -1.
                    </_>
                    <_>
                        1 5 9 3 2.
                    </_>
                </rects>
                <tilted>0</tilted>
            </_>
            <_>
                <rects>
                    <_>
                        1 6 10 16 -1.
                    </_>
                    <_>
                        6 6 5 16 2.
                    </_>
                </rects>
                <tilted>0</tilted>
            </_>
            <_>
                <rects>
                    <_>
                        1 13 10 2 -1.
                    </_>
                    <_>
                        1 14 10 1 2.
                    </_>
                </rects>
                <tilted>0</tilted>
            </_>
            <_>
                <rects>
                    <_>
                        2 1 7 12 -1.
                    </_>
                    <_>
                        2 7 7 6 2.
                    </_>
                </rects>
                <tilted>0</tilted>
            </_>
            <_>
                <rects>
                    <_>
                        2 20 9 4 -1.
                    </_>
                    <_>
                        2 22 9 2 2.
                    </_>
                </rects>
                <tilted>0</tilted>
            </_>
            <_>
                <rects>
                    <_>
                        2 21 3 2 -1.
                    </_>
                    <_>
                        3 21 1 2 2.
                    </_>
                </rects>
                <tilted>0</tilted>
            </_>
            <_>
                <rects>
                    <_>
                        3 0 2 15 -1.
                    </_>
                    <_>
                        4 0 1 15 2.
                    </_>
                </rects>
                <tilted>0</tilted>
            </_>
            <_>
                <rects>
                    <_>
                        3 1 4 2 -1.
                    </_>
                    <_>
                        3 1 2 1 2.
                    </_>
                    <_>
                        5 2 2 1 2.
                    </_>
                </rects>
                <tilted>0</tilted>
            </_>
            <_>
                <rects>
                    <_>
                        3 18 4 2 -1.
                    </_>
                    <_>
                        3 19 4 1 2.
                    </_>
                </rects>
                <tilted>0</tilted>
            </_>
            <_>
                <rects>
                    <_>
                        4 1 9 4 -1.
                    </_>
                    <_>
                        4 3 9 2 2.
                    </_>
                </rects>
                <tilted>0</tilted>
            </_>
            <_>
                <rects>
                    <_>
                        4 10 4 1 -1.
                    </_>
                    <_>
                        6 10 2 1 2.
                    </_>
                </rects>
                <tilted>0</tilted>
            </_>
            <_>
                <rects>
                    <_>
                        4 23 2 1 -1.
                    </_>
                    <_>
                        5 23 1 1 2.
                    </_>
                </rects>
                <tilted>0</tilted>
            </_>
            <_>
                <rects>
                    <_>
                        5 0 15 2 -1.
                    </_>
                    <_>
                        5 1 15 1 2.
                    </_>
                </rects>
                <tilted>0</tilted>
            </_>
            <_>
                <rects>
                    <_>
                        5 1 3 9 -1.
                    </_>
                    <_>
                        5 4 3 3 2.
                    </_>
                </rects>
                <tilted>0</tilted>
            </_>
            <_>
                <rects>
                    <_>
                        5 9 15 5 -1.
                    </_>
                    <_>
                        10 9 5 5 2.
                    </_>
                </rects>
                <tilted>0</tilted>
            </_>
            <_>
                <rects>
                    <_>
                        5 20 2 4 -1.
                    </_>
                    <_>
                        5 20 1 2 2.
                    </_>
                    <_>
                        6 22 1 2 2.
                    </_>
                </rects>
                <tilted>0</tilted>
            </_>
            <_>
                <rects>
                    <_>
                        6 10 18 2 -1.
                    </_>
                    <_>
                        6 10 9 1 2.
                    </_>
                    <_>
                        15 11 9 1 2.
                    </_>
                </rects>
                <tilted>0</tilted>
            </_>
            <_>
                <rects>
                    <_>
                        6 13 8 8 -1.
                    </_>
                    <_>
                        6 13 4 4 2.
                    </_>
                    <_>
                        10 17 4 4 2.
                    </_>
                </rects>
                <tilted>0</tilted>
            </_>
            <_>
                <rects>
                    <_>
                        7 3 15 2 -1.
                    </_>
                    <_>
                        7 4 15 1 2.
                    </_>
                </rects>
                <tilted>0</tilted>
            </_>
            <_>
                <rects>
                    <_>
                        7 9 6 6 -1.
                    </_>
                    <_>
                        7 9 3 3 2.
                    </_>
                    <_>
                        10 12 3 3 2.
                    </_>
                </rects>
                <tilted>0</tilted>
            </_>
            <_>
                <rects>
                    <_>
                        7 14 11 10 -1.
                    </_>
                    <_>
                        7 19 11 5 2.
                    </_>
                </rects>
                <tilted>0</tilted>
            </_>
            <_>
                <rects>
                    <_>
                        7 20 10 4 -1.
                    </_>
                    <_>
                        7 22 10 2 2.
                    </_>
                </rects>
                <tilted>0</tilted>
            </_>
            <_>
                <rects>
                    <_>
                        8 6 10 12 -1.
                    </_>
                    <_>
                        8 6 5 6 2.
                    </_>
                    <_>
                        13 12 5 6 2.
                    </_>
                </rects>
                <tilted>0</tilted>
            </_>
            <_>
                <rects>
                    <_>
                        8 8 6 8 -1.
                    </_>
                    <_>
                        11 8 3 8 2.
                    </_>
                </rects>
                <tilted>0</tilted>
            </_>
            <_>
                <rects>
                    <_>
                        8 18 8 6 -1.
                    </_>
                    <_>
                        8 21 8 3 2.
                    </_>
                </rects>
                <tilted>0</tilted>
            </_>
            <_>
                <rects>
                    <_>
                        9 0 14 4 -1.
                    </_>
                    <_>
                        9 2 14 2 2.
                    </_>
                </rects>
                <tilted>0</tilted>
            </_>
            <_>
                <rects>
                    <_>
                        9 2 1 4 -1.
                    </_>
                    <_>
                        9 4 1 2 2.
                    </_>
                </rects>
                <tilted>0</tilted>
            </_>
            <_>
                <rects>
                    <_>
                        9 5 5 12 -1.
                    </_>
                    <_>
                        9 11 5 6 2.
                    </_>
                </rects>
                <tilted>0</tilted>
            </_>
            <_>
                <rects>
                    <_>
                        9 14 10 10 -1.
                    </_>
                    <_>
                        9 14 5 5 2.
                    </_>
                    <_>
                        14 19 5 5 2.
                    </_>
                </rects>
                <tilted>0</tilted>
            </_>
            <_>
                <rects>
                    <_>
                        10 7 2 12 -1.
                    </_>
                    <_>
                        10 11 2 4 2.
                    </_>
                </rects>
                <tilted>0</tilted>
            </_>
            <_>
                <rects>
                    <_>
                        10 12 8 3 -1.
                    </_>
                    <_>
                        14 12 4 3 2.
                    </_>
                </rects>
                <tilted>0</tilted>
            </_>
            <_>
                <rects>
                    <_>
                        11 2 8 5 -1.
                    </_>
                    <_>
                        15 2 4 5 2.
                    </_>
                </rects>
                <tilted>0</tilted>
            </_>
            <_>
                <rects>
                    <_>
                        11 11 1 4 -1.
                    </_>
                    <_>
                        11 13 1 2 2.
                    </_>
                </rects>
                <tilted>0</tilted>
            </_>
            <_>
                <rects>
                    <_>
                        11 22 10 2 -1.
                    </_>
                    <_>
                        11 23 10 1 2.
                    </_>
                </rects>
                <tilted>0</tilted>
            </_>
            <_>
                <rects>
                    <_>
                        12 0 12 8 -1.
                    </_>
                    <_>
                        12 4 12 4 2.
                    </_>
                </rects>
                <tilted>0</tilted>
            </_>
            <_>
                <rects>
                    <_>
                        12 3 6 15 -1.
                    </_>
                    <_>
                        14 3 2 15 2.
                    </_>
                </rects>
                <tilted>0</tilted>
            </_>
            <_>
                <rects>
                    <_>
                        12 4 1 6 -1.
                    </_>
                    <_>
                        12 7 1 3 2.
                    </_>
                </rects>
                <tilted>0</tilted>
            </_>
            <_>
                <rects>
                    <_>
                        12 8 1 10 -1.
                    </_>
                    <_>
                        12 13 1 5 2.
                    </_>
                </rects>
                <tilted>0</tilted>
            </_>
            <_>
                <rects>
                    <_>
                        13 10 4 7 -1.
                    </_>
                    <_>
                        15 10 2 7 2.
                    </_>
                </rects>
                <tilted>0</tilted>
            </_>
            <_>
                <rects>
                    <_>
                        13 10 4 10 -1.
                    </_>
                    <_>
                        15 10 2 10 2.
                    </_>
                </rects>
                <tilted>0</tilted>
            </_>
            <_>
                <rects>
                    <_>
                        14 0 6 4 -1.
                    </_>
                    <_>
                        14 0 3 2 2.
                    </_>
                    <_>
                        17 2 3 2 2.
                    </_>
                </rects>
                <tilted>0</tilted>
            </_>
            <_>
                <rects>
                    <_>
                        14 6 10 17 -1.
                    </_>
                    <_>
                        19 6 5 17 2.
                    </_>
                </rects>
                <tilted>0</tilted>
            </_>
            <_>
                <rects>
                    <_>
                        14 16 8 8 -1.
                    </_>
                    <_>
                        14 20 8 4 2.
                    </_>
                </rects>
                <tilted>0</tilted>
            </_>
            <_>
                <rects>
                    <_>
                        14 19 7 4 -1.
                    </_>
                    <_>
                        14 21 7 2 2.
                    </_>
                </rects>
                <tilted>0</tilted>
            </_>
            <_>
                <rects>
                    <_>
                        15 0 2 2 -1.
                    </_>
                    <_>
                        15 0 1 1 2.
                    </_>
                    <_>
                        16 1 1 1 2.
                    </_>
                </rects>
                <tilted>0</tilted>
            </_>
            <_>
                <rects>
                    <_>
                        16 1 8 19 -1.
                    </_>
                    <_>
                        20 1 4 19 2.
                    </_>
                </rects>
                <tilted>0</tilted>
            </_>
            <_>
                <rects>
                    <_>
                        16 13 8 8 -1.
                    </_>
                    <_>
                        20 13 4 8 2.
                    </_>
                </rects>
                <tilted>0</tilted>
            </_>
            <_>
                <rects>
                    <_>
                        17 9 1 3 -1.
                    </_>
                    <_>
                        17 10 1 1 2.
                    </_>
                </rects>
                <tilted>0</tilted>
            </_>
            <_>
                <rects>
                    <_>
                        17 21 1 2 -1.
                    </_>
                    <_>
                        17 22 1 1 2.
                    </_>
                </rects>
                <tilted>0</tilted>
            </_>
            <_>
                <rects>
                    <_>
                        18 0 1 2 -1.
                    </_>
                    <_>
                        18 1 1 1 2.
                    </_>
                </rects>
                <tilted>0</tilted>
            </_>
            <_>
                <rects>
                    <_>
                        18 17 6 3 -1.
                    </_>
                    <_>
                        20 17 2 3 2.
                    </_>
                </rects>
                <tilted>0</tilted>
            </_>
            <_>
                <rects>
                    <_>
                        18 18 2 1 -1.
                    </_>
                    <_>
                        19 18 1 1 2.
                    </_>
                </rects>
                <tilted>0</tilted>
            </_>
            <_>
                <rects>
                    <_>
                        18 22 4 2 -1.
                    </_>
                    <_>
                        18 23 4 1 2.
                    </_>
                </rects>
                <tilted>0</tilted>
            </_>
            <_>
                <rects>
                    <_>
                        19 17 1 6 -1.
                    </_>
                    <_>
                        19 19 1 2 2.
                    </_>
                </rects>
                <tilted>0</tilted>
            </_>
            <_>
                <rects>
                    <_>
                        20 1 2 2 -1.
                    </_>
                    <_>
                        20 1 1 1 2.
                    </_>
                    <_>
                        21 2 1 1 2.
                    </_>
                </rects>
                <tilted>0</tilted>
            </_>
            <_>
                <rects>
                    <_>
                        20 4 4 18 -1.
                    </_>
                    <_>
                        22 4 2 18 2.
                    </_>
                </rects>
                <tilted>0</tilted>
            </_>
            <_>
                <rects>
                    <_>
                        20 16 4 2 -1.
                    </_>
                    <_>
                        22 16 2 2 2.
                    </_>
                </rects>
                <tilted>0</tilted>
            </_>
            <_>
                <rects>
                    <_>
                        21 0 1 2 -1.
                    </_>
                    <_>
                        21 1 1 1 2.
                    </_>
                </rects>
                <tilted>0</tilted>
            </_>
            <_>
                <rects>
                    <_>
                        21 0 2 2 -1.
                    </_>
                    <_>
                        21 0 1 1 2.
                    </_>
                    <_>
                        22 1 1 1 2.
                    </_>
                </rects>
                <tilted>0</tilted>
            </_>
            <_>
                <rects>
                    <_>
                        21 2 2 17 -1.
                    </_>
                    <_>
                        22 2 1 17 2.
                    </_>
                </rects>
                <tilted>0</tilted>
            </_>
            <_>
                <rects>
                    <_>
                        21 6 3 11 -1.
                    </_>
                    <_>
                        22 6 1 11 2.
                    </_>
                </rects>
                <tilted>0</tilted>
            </_>
            <_>
                <rects>
                    <_>
                        21 6 3 2 -1.
                    </_>
                    <_>
                        21 7 3 1 2.
                    </_>
                </rects>
                <tilted>0</tilted>
            </_>
            <_>
                <rects>
                    <_>
                        21 9 1 2 -1.
                    </_>
                    <_>
                        21 10 1 1 2.
                    </_>
                </rects>
                <tilted>0</tilted>
            </_>
            <_>
                <rects>
                    <_>
                        22 18 2 4 -1.
                    </_>
                    <_>
                        22 18 1 2 2.
                    </_>
                    <_>
                        23 20 1 2 2.
                    </_>
                </rects>
                <tilted>0</tilted>
            </_>
            <_>
                <rects>
                    <_>
                        23 2 1 2 -1.
                    </_>
                    <_>
                        23 3 1 1 2.
                    </_>
                </rects>
                <tilted>0</tilted>
            </_>
            <_>
                <rects>
                    <_>
                        23 13 1 9 -1.
                    </_>
                    <_>
                        23 16 1 3 2.
                    </_>
                </rects>
                <tilted>0</tilted>
            </_>
        </features>
    </cascade>
</opencv_storage>
